{
  "Structure": [
    2,
    8,
    8,
    8,
    1
  ],
  "Weights": [
    [
      [
        0.7467658432090925,
        0.6803224296255266,
        2.8411908322095645,
        -3.236379151699424,
        2.1277272191650476,
        -2.6112252528339375,
        1.511935508646532,
        0.6310072957968221
      ],
      [
        -2.2958547833197676,
        1.4509768449484801,
        -1.9700777730929113,
        1.9615990159642418,
        1.1284972172312144,
        2.7237687559799575,
        -2.5272060462996984,
        -1.2116232041100647
      ]
    ],
    [
      [
        -2.114768847173305,
        -0.3893447842703234,
        -0.17685747587408676,
        -1.159707713422881,
        -1.8982775220350525,
        -0.8756014795647631,
        -1.8412688123754781,
        -1.3054694992743914
      ],
      [
        -0.9300879882027582,
        -0.8068753456561146,
        0.7172411569078921,
        1.198299908535617,
        -1.889184572266665,
        2.0199527763887946,
        -1.0396883887597923,
        1.0635209945414514
      ],
      [
        0.24147572042058432,
        1.408034835212948,
        2.3345961401152144,
        0.13933323703480519,
        -3.0833896061762887,
        1.4975299006519485,
        1.1001749699833985,
        -0.24561165411259578
      ],
      [
        3.8098406035413324,
        2.5722321653574016,
        -2.4355129440383965,
        1.169015786589725,
        2.429880973495067,
        -1.2955186392860927,
        2.0947956409486035,
        0.7310512640802833
      ],
      [
        0.40500228431945123,
        -0.02957068503584319,
        -0.8020278007779942,
        -0.1180674967961712,
        1.3632578696104238,
        -0.0022381001251211,
        -2.288888821276108,
        -2.363499456115073
      ],
      [
        3.3610847015681555,
        1.9271322626725904,
        0.0983005171832489,
        3.0429452922286395,
        2.2446477257067503,
        1.5859217690350156,
        -1.3714242121462126,
        -2.319847655431407
      ],
      [
        -2.33661850549034,
        -2.1793296506530293,
        2.353490333071435,
        -1.2913498402560326,
        -1.9043004464519866,
        0.7420599108127643,
        0.9742973651919499,
        -0.9406662274382741
      ],
      [
        0.6335120072851048,
        2.3128713561692327,
        -0.670330998216122,
        -1.3752193603948948,
        -2.032184979848764,
        -0.10043428835919473,
        0.31683868924072056,
        -2.2475948481428745
      ]
    ],
    [
      [
        -2.248228126267687,
        -2.7388266635754843,
        0.7150001871429909,
        -0.9438379026954592,
        1.4716578195531387,
        3.1940453596890186,
        -1.9195189544440618,
        2.0670933905994593
      ],
      [
        2.4692840611823326,
        1.0483025036479174,
        -1.3128850343179266,
        -2.4264275624514573,
        1.3858375113330548,
        1.1360053538692472,
        -2.0617177169384195,
        1.801362848499755
      ],
      [
        -1.451428083274836,
        -0.5797489416078618,
        1.2400670477542817,
        -1.49469648782543,
        0.8301318231062587,
        -1.15735411518939,
        1.934517004798976,
        1.3759035196318115
      ],
      [
        -1.72968219530243,
        1.464353886242111,
        1.8748201816261079,
        -2.366994537571316,
        1.8213308840960016,
        2.6053313442606525,
        -1.3749673111087648,
        -0.2222526225390402
      ],
      [
        2.730534314205441,
        1.417930905027219,
        -0.6642327696543103,
        0.8537307438464148,
        0.4488718422087513,
        1.1521813832479118,
        -0.6146036153735643,
        -4.303918125740502
      ],
      [
        2.0533915826701166,
        0.750875196594452,
        -0.40645137330038644,
        1.689724008508108,
        0.14156191894455156,
        -1.9527018875130282,
        1.7972020119480223,
        -2.0553228505132215
      ],
      [
        -1.6300427737622736,
        -0.49106193953683086,
        -2.4385199151356334,
        -2.45231398689938,
        1.9539518141191707,
        1.2377727431852117,
        1.5714110344927739,
        1.0281938696623503
      ],
      [
        -1.8538087536662424,
        1.7986954375226196,
        -1.4369636118287432,
        2.1485956155653656,
        -1.9983653397217636,
        -1.6540404839821161,
        1.4479136515602369,
        2.0674770701900806
      ]
    ],
    [
      [
        4.759111820017957
      ],
      [
        2.274437352685879
      ],
      [
        -1.778201182106664
      ],
      [
        -1.8600043786809686
      ],
      [
        0.8795079169613381
      ],
      [
        -3.1787363555704924
      ],
      [
        1.3204797333574245
      ],
      [
        -5.379865739846549
      ]
    ]
  ],
  "Biases": [
    0.822655644968541,
    0.45247313145555584,
    -0.7729477567207585,
    1.914417953906222
  ]
}