{
  "Structure": [
    3,
    5,
    5,
    2
  ],
  "Weights": [
    [
      [
        -1.8259068251603159,
        -2.4673352641668442,
        1.93609986719475,
        1.288936715936019,
        -4.978961197089568
      ],
      [
        -2.666764115211203,
        -1.7520019025239433,
        -0.35621664752920174,
        0.7951271905692221,
        -5.0161980616698205
      ],
      [
        -2.2121238180854155,
        -2.156792779374824,
        1.255798368931464,
        1.347678350377365,
        -4.9903229865451
      ]
    ],
    [
      [
        4.468897072994466,
        -3.2184023617625996,
        -6.610491936655998,
        -4.709272264376754,
        0.593943494259751
      ],
      [
        2.810707353947972,
        -1.489635346731006,
        -7.652890461353029,
        -7.56812339460197,
        2.157341334485929
      ],
      [
        -0.9862517063375748,
        2.9080539066029774,
        3.6883022294900467,
        0.3482147132253961,
        -2.5888987459453485
      ],
      [
        -2.9300666030281173,
        3.9414856200571227,
        4.3620055460324,
        0.40832908310875665,
        -3.55473858971266
      ],
      [
        2.2730714746475216,
        -6.163788973534161,
        -5.2754252953293745,
        0.374343541005755,
        2.7789626056385606
      ]
    ],
    [
      [
        -3.604989142228628,
        -5.655993334964212
      ],
      [
        9.417029249534114,
        1.1622981733772437
      ],
      [
        -12.507755250046003,
        8.112161165207487
      ],
      [
        9.165441017171716,
        0.926939333353937
      ],
      [
        -3.477584940761887,
        -4.17414603082171
      ]
    ]
  ],
  "Biases": [
    4.10191028752159,
    2.01560219334722,
    0.5743601807392971
  ]
}